module.exports = '{"layers":[{"out_depth":30,"out_sx":1,"out_sy":1,"layer_type":"input"},{"out_depth":10,"out_sx":1,"out_sy":1,"layer_type":"fc","num_inputs":30,"l1_decay_mul":0,"l2_decay_mul":1,"filters":[{"sx":1,"sy":1,"depth":30,"w":{"0":4.026807096453523e-73,"1":-4.164908775604461e-73,"2":-9.938098038575792e-73,"3":-3.606923577615025e-73,"4":-1.6025759040276505e-73,"5":2.265972872743509e-73,"6":-5.931773712270578e-75,"7":-0.020370876492223567,"8":0.5981860443954903,"9":-0.6455332661015813,"10":3.084742336372061e-73,"11":6.866162609081636e-74,"12":-5.898660535016541e-73,"13":-7.100122630557683e-73,"14":-5.29757421688594e-73,"15":-2.411878474563675e-75,"16":-0.45523671709176455,"17":-0.3058427404701862,"18":-0.35284631127474114,"19":0.496352472560673,"20":3.838602620875054e-74,"21":-2.787279841802657e-73,"22":1.1477418415381249e-74,"23":-2.6032596985905282e-73,"24":-1.2519766695025324e-74,"25":8.817969404025905e-74,"26":0.43199608917538135,"27":0.5250816255709434,"28":-0.29971613907077516,"29":-0.4416836372777976}},{"sx":1,"sy":1,"depth":30,"w":{"0":-4.963915348390287e-73,"1":-5.861268992995854e-73,"2":-5.448483557827869e-73,"3":2.702421274336726e-73,"4":3.39571728393695e-73,"5":3.2346665246535266e-73,"6":-5.774695885197274e-73,"7":0.04964463840436981,"8":-0.4799716187791597,"9":-1.5805187731825927,"10":5.310872303744156e-73,"11":9.08106334706782e-74,"12":4.3117588603893476e-73,"13":5.316578664482527e-73,"14":3.7824644462202955e-73,"15":1.8604468021163764e-73,"16":1.204973317674091,"17":1.5892060816193108,"18":1.5892427751310227,"19":1.267529703915863,"20":-4.968050825334565e-73,"21":4.8150082751881016e-73,"22":1.3010303688423506e-73,"23":4.7770605710261074e-73,"24":5.928660243777937e-73,"25":-4.845770982763623e-73,"26":1.104805329426213,"27":1.362945391158782,"28":0.5908500609863886,"29":-1.555389350001254}},{"sx":1,"sy":1,"depth":30,"w":{"0":2.892045047099127e-73,"1":1.696794426606727e-73,"2":-2.3718974647935836e-73,"3":1.5042824967381388e-75,"4":-2.3841907066995937e-74,"5":-3.1026070252475155e-73,"6":3.341535738785678e-73,"7":0.001296918604712087,"8":0.03529706780358316,"9":-0.04943039197506954,"10":5.2483835517882353e-73,"11":-5.5591056407158633e-73,"12":-4.7854436536647934e-74,"13":5.2890895912720136e-73,"14":2.49542856183614e-73,"15":1.164473166507315e-73,"16":0.011880105417428222,"17":0.051596890875938564,"18":0.006621924602045063,"19":-0.036411092131501274,"20":2.993144308123144e-73,"21":1.9206077821886457e-73,"22":2.5841693759671084e-74,"23":6.000780914129904e-74,"24":-5.1987776592618736e-73,"25":-3.7605751308197985e-74,"26":0.009368127697785694,"27":0.0359844221516657,"28":0.02232744671336081,"29":-0.04502821287949154}},{"sx":1,"sy":1,"depth":30,"w":{"0":-6.7082692187834796e-74,"1":3.354327878412509e-74,"2":4.373502858429465e-73,"3":9.093029120022834e-74,"4":-3.921880698451403e-73,"5":3.109586551076931e-73,"6":3.2832071615731114e-73,"7":2.4911118863130694e-67,"8":-0.439449436613969,"9":0.02547260377304451,"10":-6.926011500394408e-74,"11":-9.590291624339013e-74,"12":-1.756483732464649e-73,"13":-3.001943874155984e-73,"14":-2.409357109655378e-73,"15":-2.0720351410737743e-73,"16":0.1872720309415264,"17":0.0843319037023457,"18":0.16039669381875726,"19":-0.08406785300093235,"20":-2.1424656206712156e-73,"21":-1.4611635109204604e-73,"22":2.3018946890418263e-73,"23":5.393010045273449e-73,"24":-4.8302019541204384e-73,"25":-5.176693654754121e-73,"26":-0.3591930372063389,"27":-0.35846800328132056,"28":-0.42847778105762024,"29":0.27502089653197775}},{"sx":1,"sy":1,"depth":30,"w":{"0":-3.121555131865198e-73,"1":5.960495156878405e-73,"2":1.3358227931773145e-73,"3":1.3156036133666148e-75,"4":-4.680008783447328e-73,"5":2.2158417876902e-73,"6":3.762724705002977e-73,"7":3.666723819310963e-47,"8":0.00010350315283057625,"9":0.0006917200047331478,"10":-1.4499054441556434e-73,"11":1.678101342926541e-73,"12":-1.1453369364240597e-73,"13":-5.1902270435114795e-73,"14":1.8324363731043068e-73,"15":9.84405698640314e-74,"16":0.00003371844458161037,"17":0.00015348161696165306,"18":0.00007795431833834443,"19":-0.0006697353905536779,"20":3.9745797526593436e-73,"21":4.918785320322822e-74,"22":-1.6345661828716868e-73,"23":7.184790075397642e-75,"24":3.8199224772124555e-73,"25":-3.5415808326534906e-73,"26":0.00003371844458161037,"27":0.0001228733841717395,"28":0.00021910075026109063,"29":0.0006493791972508362}},{"sx":1,"sy":1,"depth":30,"w":{"0":-8.208489603711108e-74,"1":5.985920228589401e-74,"2":-2.977534440338902e-73,"3":5.457771705727516e-73,"4":1.5090635457391822e-74,"5":-4.620446707339874e-73,"6":-1.0275296964089467e-73,"7":3.844023364914292e-33,"8":0.3732456356715583,"9":1.22328461986448,"10":3.844168404300722e-73,"11":-1.7778249720333092e-73,"12":-7.961897281161104e-73,"13":2.0560749300248203e-73,"14":-1.0629658390535423e-73,"15":4.490064839435293e-74,"16":0.8865901603275889,"17":0.4751998345602633,"18":-1.6093823127531428,"19":-1.212189130098035,"20":4.02504938751853e-73,"21":-6.722565381465388e-73,"22":4.258961089533958e-74,"23":-3.562861747662113e-73,"24":-7.326979000450352e-74,"25":5.948873924102138e-73,"26":-0.667984297012047,"27":-0.9061417501196054,"28":0.3402613208581561,"29":1.038503970461834}},{"sx":1,"sy":1,"depth":30,"w":{"0":-1.1879094174425126e-74,"1":-8.595088998789272e-74,"2":-5.125205160124753e-74,"3":7.820592392855008e-74,"4":9.318223914918977e-74,"5":5.870883774876401e-73,"6":-5.980462779255595e-73,"7":-0.0020653172804909097,"8":-0.04119769367595089,"9":-0.05365585722236451,"10":4.031647190497394e-73,"11":1.6568131975209808e-73,"12":1.8824669045826545e-73,"13":-1.1352759599362613e-73,"14":1.6775887297166456e-73,"15":-1.8990798836304645e-73,"16":-0.05935174777978849,"17":-0.05260240181726097,"18":-0.07458652145205684,"19":0.04760150510591454,"20":-1.3462498985640795e-73,"21":3.195409115447705e-73,"22":-7.839219969301454e-74,"23":4.684772282177597e-73,"24":4.595808544685145e-73,"25":6.45406211032813e-73,"26":0.06912156544817126,"27":0.02190112947171393,"28":0.012082820603476867,"29":-0.05960768454655287}},{"sx":1,"sy":1,"depth":30,"w":{"0":-2.5966997380092774e-73,"1":4.055607540304025e-73,"2":-5.267321383644841e-73,"3":-2.999216370436714e-73,"4":7.419259494913947e-73,"5":2.412687164710432e-74,"6":-7.864115588078738e-74,"7":6.706907754789146e-70,"8":-0.8995964373268577,"9":0.0702745597566393,"10":1.5661570164643642e-73,"11":4.877534109525247e-73,"12":-6.4526841157236e-73,"13":-4.022773021416627e-73,"14":1.0625064610990553e-73,"15":-8.850813703852511e-74,"16":0.34552155665399154,"17":0.18469030441681789,"18":0.3096710390718527,"19":-0.1266426364076558,"20":3.262608859665117e-73,"21":-2.397766495980626e-74,"22":1.6451327763414225e-73,"23":7.467641482809862e-73,"24":-4.3186419195141335e-73,"25":5.691470922878894e-73,"26":-0.732851269059279,"27":-0.715050853638232,"28":-0.7850453198174093,"29":0.585540416280053}},{"sx":1,"sy":1,"depth":30,"w":{"0":4.572252221561119e-74,"1":-2.6116538008800436e-73,"2":1.4787357092641052e-74,"3":7.075088628232899e-73,"4":-3.1771923504477993e-74,"5":-1.5328094981801502e-73,"6":3.847896104419455e-73,"7":-4.624716147154139e-60,"8":0.39837362886086347,"9":-0.08498900337739987,"10":-1.5016502536669384e-73,"11":-2.1438768123387628e-73,"12":4.706008002077425e-74,"13":-5.071298729886261e-73,"14":-2.3911775002302864e-73,"15":-9.290517721842554e-75,"16":-0.32327604748459865,"17":-0.30646086530560257,"18":-0.0629981999362964,"19":0.7925248950375046,"20":-8.547984098005333e-74,"21":-2.743658307162759e-73,"22":-1.5254395071091927e-73,"23":-3.5161149750946785e-73,"24":-9.070515855019881e-76,"25":-6.84832566634592e-73,"26":-0.32327604748459865,"27":0.3325844622425215,"28":0.2625221281089423,"29":-0.02845041939545937}},{"sx":1,"sy":1,"depth":30,"w":{"0":2.475973900917733e-73,"1":3.701496733549377e-73,"2":-1.2518517477700482e-73,"3":4.2873179710198374e-74,"4":6.93613640313869e-73,"5":5.166729596078189e-73,"6":-4.632891718243216e-73,"7":-0.01776724305104589,"8":-0.35016797844797565,"9":-0.3561372753489209,"10":4.088144200581131e-73,"11":-1.7331866528696382e-73,"12":-4.3367219119291907e-73,"13":3.753792900152175e-73,"14":3.094591619616893e-73,"15":-6.214649643571414e-73,"16":-0.4110194113985339,"17":-0.4266544906058251,"18":-0.6583780969050196,"19":-0.3777666148033952,"20":-1.768994932945844e-73,"21":3.6797003952026053e-73,"22":2.843202698163955e-73,"23":1.1575658090484768e-73,"24":7.442174273748837e-73,"25":-3.9384209423192316e-73,"26":0.36298518310461736,"27":0.07320380874014304,"28":0.29794971243401386,"29":-0.405310927776655}}],"biases":{"sx":1,"sy":1,"depth":10,"w":{"0":0.5752608047487189,"1":-0.62642911817784,"2":0.0020725262221134647,"3":0.5057271516899126,"4":-0.0011681192725986622,"5":0.22326495667896523,"6":0.05464592772835763,"7":0.895580847034523,"8":0.02447990238539506,"9":1.1275001154570925}}},{"out_depth":10,"out_sx":1,"out_sy":1,"layer_type":"relu"},{"out_depth":2,"out_sx":1,"out_sy":1,"layer_type":"fc","num_inputs":10,"l1_decay_mul":0,"l2_decay_mul":1,"filters":[{"sx":1,"sy":1,"depth":10,"w":{"0":1.167192636510498,"1":-2.968408432486468,"2":-0.07429456990351982,"3":-0.691451362397585,"4":-0.0006820053680170459,"5":-2.2282507567049152,"6":0.119710984163225,"7":-1.4404856622342799,"8":0.8314965689163856,"9":1.0108525851554493}},{"sx":1,"sy":1,"depth":10,"w":{"0":-1.167192636510499,"1":2.9684084452964576,"2":0.07429456990351975,"3":0.6914513623974649,"4":0.0006820053680170449,"5":2.2282507567049117,"6":-0.11971098416322506,"7":1.4404856744726882,"8":-0.8314964966209076,"9":-1.0108525851554526}}],"biases":{"sx":1,"sy":1,"depth":2,"w":{"0":2.8333001274340224,"1":-2.8333001274340104}}},{"out_depth":2,"out_sx":1,"out_sy":1,"layer_type":"softmax","num_inputs":2}]}';
